version: 100
cost-factor: 1
maxid: 96
xsize: 1

B-LOC
I-LOC
O

U00:%x[0,0]

6 U00:ಅರುಣಾಚಲ
9 U00:ಅಸ್ಸಾಂ
0 U00:ಆಂಧ್ರ
84 U00:ಉತ್ತರ
87 U00:ಉತ್ತರಾಖಂಡ್
66 U00:ಒಡಿಶಾ
42 U00:ಕರ್ನಾಟಕ
36 U00:ಕಾಶ್ಮೀರ
45 U00:ಕೇರಳ
21 U00:ಗುಜರಾತ್
18 U00:ಗೋವಾ
15 U00:ಛತ್ತೀಸ್ಗಢ
30 U00:ಜಮ್ಮು
39 U00:ಜಾರ್ಖಂಡ್
78 U00:ತಮಿಳುನಾಡು
81 U00:ತ್ರಿಪುರ
63 U00:ನಾಗಾಲ್ಯಾಂಡ್
69 U00:ಪಂಜಾಬ್
90 U00:ಪಶ್ಚಿಮ
3 U00:ಪ್ರದೇಶ
93 U00:ಬಂಗಾಳ
12 U00:ಬಿಹಾರ
54 U00:ಮಣಿಪುರ
33 U00:ಮತ್ತು
48 U00:ಮಧ್ಯ
51 U00:ಮಹಾರಾಷ್ಟ್ರ
60 U00:ಮಿಜೋರಾಮ್
57 U00:ಮೇಘಾಲಯ
72 U00:ರಾಜಸ್ಥಾನ
75 U00:ಸಿಕ್ಕಿಂ
24 U00:ಹರಿಯಾಣ
27 U00:ಹಿಮಾಚಲ

0.4896641943725071
-0.2448320971862533
-0.2448320971862533
-0.6088433553717492
1.2176867107435612
-0.6088433553717492
0.4896641943725074
-0.2448320971862527
-0.2448320971862527
0.4896641943725087
-0.2448320971862513
-0.2448320971862513
0.4896641943725118
-0.2448320971862498
-0.2448320971862498
0.4896641943725148
-0.2448320971862483
-0.2448320971862483
0.4896641943725148
-0.2448320971862483
-0.2448320971862483
0.4896641943725193
-0.2448320971862469
-0.2448320971862469
0.4896641943725196
-0.2448320971862460
-0.2448320971862460
0.4896641943725196
-0.2448320971862451
-0.2448320971862451
0.4896641943725212
-0.2448320971862443
-0.2448320971862443
-0.2448320971862443
-0.2448320971862443
0.4896641943725212
-0.2448320971862443
0.4896641943725215
-0.2448320971862443
0.4896641943725215
-0.2448320971862443
-0.2448320971862443
0.4896641943725215
-0.2448320971862443
-0.2448320971862443
0.4896641943725215
-0.2448320971862443
-0.2448320971862443
0.4896641943725215
-0.2448320971862443
-0.2448320971862443
0.4896641943725215
-0.2448320971862443
-0.2448320971862443
0.4896641943725215
-0.2448320971862443
-0.2448320971862443
0.4896641943725212
-0.2448320971862443
-0.2448320971862443
0.4896641943725212
-0.2448320971862443
-0.2448320971862443
0.4896641943725212
-0.2448320971862453
-0.2448320971862453
0.4896641943725193
-0.2448320971862462
-0.2448320971862462
0.4896641943725211
-0.2448320971862462
-0.2448320971862462
0.4896641943725162
-0.2448320971862475
-0.2448320971862475
0.4896641943725148
-0.2448320971862483
-0.2448320971862483
0.4896641943725132
-0.2448320971862497
-0.2448320971862497
0.4896641943725101
-0.2448320971862513
-0.2448320971862513
0.4896641943725086
-0.2448320971862521
-0.2448320971862521
0.4896641943725074
-0.2448320971862535
-0.2448320971862535
0.4896641943725056
-0.2448320971862535
-0.2448320971862535
-0.2448320971862525
0.4896641943725057
-0.2448320971862525
