version: 100
cost-factor: 1
maxid: 56
xsize: 2

LOC
O

U00:%x[0,0]
U01:%x[-1,0]
U02:%x[1,0]
U10:%x[0,1]
U11:%x[-1,1]
U12:%x[1,1]
B

52 B
24 U00:.
0 U00:ಎಲ್ಲಿ
12 U00:ಚೆನೈ
38 U00:ತಮಿಳುನಾಡಿನ
42 U00:ರಾಜಧಾನಿಯಾಗಿದೆ
32 U01:.
2 U01:_B-1
14 U01:ಎಲ್ಲಿ
26 U01:ಚೆನೈ
44 U01:ತಮಿಳುನಾಡಿನ
46 U01:ರಾಜಧಾನಿಯಾಗಿದೆ
16 U02:.
48 U02:_B+1
4 U02:ಚೆನೈ
34 U02:ತಮಿಳುನಾಡಿನ
40 U02:ರಾಜಧಾನಿಯಾಗಿದೆ
18 U10:NN
6 U10:RB
28 U10:SYM
30 U11:NN
20 U11:RB
36 U11:SYM
8 U11:_B-1
10 U12:NN
22 U12:SYM
50 U12:_B+1

-0.1474829243581710
0.1474829243581712
-0.1474829243581710
0.1474829243581712
-0.2654848974095412
0.2654848974095416
-0.1474829243581710
0.1474829243581712
-0.1474829243581710
0.1474829243581712
0.0822671288457814
-0.0822671288457815
0.2693451536869044
-0.2693451536869041
0.1488614080550506
-0.1488614080550503
-0.0880512262959542
0.0880512262959541
0.2597007999593689
-0.2597007999593688
0.1488614080550506
-0.1488614080550503
-0.0880512262959542
0.0880512262959541
-0.2396567456904657
0.2396567456904659
0.1092663075720987
-0.1092663075720987
-0.2396567456904657
0.2396567456904659
-0.2493010994180014
0.2493010994180012
0.1204837456318538
-0.1204837456318538
0.1204837456318538
-0.1204837456318538
0.1204837456318538
-0.1204837456318538
0.2272682806234689
-0.2272682806234692
0.2272682806234689
-0.2272682806234692
-0.2369126343510047
0.2369126343510045
-0.2369126343510047
0.2369126343510045
-0.1216547726390954
0.1216547726390954
-0.1216547726390954
0.1216547726390954
-0.1216547726390954
0.1216547726390954
-0.1497878744298483
0.1440037769796759
0.1698319286987521
-0.1640478312485786
