version: 100
cost-factor: 1
maxid: 64
xsize: 2

B-LOC
O

U00:%x[0,0]
U01:%x[-1,0]
U02:%x[1,0]
U10:%x[0,1]
U11:%x[-1,1]
U12:%x[1,1]
B

60 B
50 U00:,
34 U00:ಪದಾರ್ಥಗಳಾದ
0 U00:ಪ್ರಮುಖವಾಗಿ
12 U00:ಭಾರತದ
42 U00:ಮೆಣಸು
24 U00:ಸಾಂಬಾರ
2 U01:_B-1
44 U01:ಪದಾರ್ಥಗಳಾದ
14 U01:ಪ್ರಮುಖವಾಗಿ
26 U01:ಭಾರತದ
52 U01:ಮೆಣಸು
36 U01:ಸಾಂಬಾರ
46 U02:,
54 U02:_B+1
28 U02:ಪದಾರ್ಥಗಳಾದ
4 U02:ಭಾರತದ
38 U02:ಮೆಣಸು
16 U02:ಸಾಂಬಾರ
30 U10:NN
18 U10:NNP
6 U10:RB
56 U10:SYM
40 U11:NN
32 U11:NNP
20 U11:RB
8 U11:_B-1
22 U12:NN
10 U12:NNP
48 U12:SYM
58 U12:_B+1

-0.1348791971355981
0.1348791971355981
-0.1348791971355981
0.1348791971355981
-0.1348791971355981
0.1348791971355981
-0.1348791971355981
0.1348791971355981
-0.1348791971355981
0.1348791971355981
-0.1348791971355981
0.1348791971355981
0.1929406759662137
-0.1929406759662139
0.1929406759662137
-0.1929406759662139
0.1929406759662137
-0.1929406759662139
0.1929406759662137
-0.1929406759662139
0.1929406759662137
-0.1929406759662139
-0.0180201368698650
0.0180201368698645
-0.1164552070545287
0.1164552070545290
-0.1164552070545287
0.1164552070545290
-0.1164552070545287
0.1164552070545290
-0.2978449583614891
0.2978449583614888
-0.1164552070545287
0.1164552070545290
-0.0945056057815499
0.0945056057815494
-0.0945056057815499
0.0945056057815494
-0.0945056057815499
0.0945056057815494
-0.2998653067882977
0.2998653067882970
-0.0868841455254104
0.0868841455254102
-0.0868841455254104
0.0868841455254102
-0.0868841455254104
0.0868841455254102
-0.0868841455254104
0.0868841455254102
-0.1184755554813374
0.1184755554813375
-0.1184755554813374
0.1184755554813375
-0.1184755554813374
0.1184755554813375
-0.1184755554813374
0.1184755554813375
-0.1184755554813374
0.1184755554813375
-0.2322411762171782
-0.0075423033136948
0.0088613383405652
0.2309221411903076
